digraph Tree {
node [shape=box, fontname="helvetica"] ;
edge [fontname="helvetica"] ;
0 [label="x[0] <= 30.5\ngini = 0.724\nsamples = 14\nvalue = [2, 6, 3, 2, 1]"] ;
1 [label="x[0] <= 26.0\ngini = 0.719\nsamples = 8\nvalue = [2, 0, 3, 2, 1]"] ;
0 -> 1 [labeldistance=2.5, labelangle=45, headlabel="True"] ;
2 [label="x[1] <= 0.5\ngini = 0.48\nsamples = 5\nvalue = [0, 0, 3, 2, 0]"] ;
1 -> 2 ;
3 [label="gini = 0.0\nsamples = 3\nvalue = [0, 0, 3, 0, 0]"] ;
2 -> 3 ;
4 [label="gini = 0.0\nsamples = 2\nvalue = [0, 0, 0, 2, 0]"] ;
2 -> 4 ;
5 [label="x[1] <= 0.5\ngini = 0.444\nsamples = 3\nvalue = [2, 0, 0, 0, 1]"] ;
1 -> 5 ;
6 [label="gini = 0.0\nsamples = 2\nvalue = [2, 0, 0, 0, 0]"] ;
5 -> 6 ;
7 [label="gini = 0.0\nsamples = 1\nvalue = [0, 0, 0, 0, 1]"] ;
5 -> 7 ;
8 [label="gini = 0.0\nsamples = 6\nvalue = [0, 6, 0, 0, 0]"] ;
0 -> 8 [labeldistance=2.5, labelangle=-45, headlabel="False"] ;
}